digraph Tree {
node [shape=box, style="filled, rounded", color="black", fontname=helvetica] ;
edge [fontname=helvetica] ;
0 [label="NumOfEventsInJourney <= 0.13\ngini = 0.5\nsamples = 11333\nvalue = [8999, 8955]", fillcolor="#fffefe"] ;
1 [label="NumView <= 0.06\ngini = 0.5\nsamples = 10370\nvalue = [8752, 7700]", fillcolor="#fcf0e7"] ;
0 -> 1 [labeldistance=2.5, labelangle=45, headlabel="True"] ;
2 [label="maxPrice <= 0.0\ngini = 0.09\nsamples = 5074\nvalue = [369, 7700]", fillcolor="#42a2e6"] ;
1 -> 2 ;
3 [label="gini = 0.0\nsamples = 2\nvalue = [2, 0]", fillcolor="#e58139"] ;
2 -> 3 ;
4 [label="InsessionView <= 0.02\ngini = 0.09\nsamples = 5072\nvalue = [367, 7700]", fillcolor="#42a2e6"] ;
2 -> 4 ;
5 [label="InsessionView <= 0.01\ngini = 0.09\nsamples = 5020\nvalue = [359, 7620]", fillcolor="#42a2e6"] ;
4 -> 5 ;
6 [label="gini = 0.09\nsamples = 4765\nvalue = [338, 7234]", fillcolor="#42a2e6"] ;
5 -> 6 ;
7 [label="gini = 0.1\nsamples = 255\nvalue = [21, 386]", fillcolor="#44a2e6"] ;
5 -> 7 ;
8 [label="NumCart <= 0.06\ngini = 0.17\nsamples = 52\nvalue = [8, 80]", fillcolor="#4da7e8"] ;
4 -> 8 ;
9 [label="gini = 0.0\nsamples = 49\nvalue = [0, 80]", fillcolor="#399de5"] ;
8 -> 9 ;
10 [label="gini = 0.0\nsamples = 3\nvalue = [8, 0]", fillcolor="#e58139"] ;
8 -> 10 ;
11 [label="gini = 0.0\nsamples = 5296\nvalue = [8383, 0]", fillcolor="#e58139"] ;
1 -> 11 ;
12 [label="interactionTime <= 0.0\ngini = 0.27\nsamples = 963\nvalue = [247, 1255]", fillcolor="#60b0ea"] ;
0 -> 12 [labeldistance=2.5, labelangle=-45, headlabel="False"] ;
13 [label="maxPrice <= 0.15\ngini = 0.43\nsamples = 14\nvalue = [15, 7]", fillcolor="#f1bc95"] ;
12 -> 13 ;
14 [label="InsessionView <= 0.02\ngini = 0.29\nsamples = 10\nvalue = [14, 3]", fillcolor="#eb9c63"] ;
13 -> 14 ;
15 [label="NumCart <= 0.17\ngini = 0.49\nsamples = 5\nvalue = [4, 3]", fillcolor="#f8e0ce"] ;
14 -> 15 ;
16 [label="gini = 0.38\nsamples = 3\nvalue = [1, 3]", fillcolor="#7bbeee"] ;
15 -> 16 ;
17 [label="gini = 0.0\nsamples = 2\nvalue = [3, 0]", fillcolor="#e58139"] ;
15 -> 17 ;
18 [label="gini = 0.0\nsamples = 5\nvalue = [10, 0]", fillcolor="#e58139"] ;
14 -> 18 ;
19 [label="NumCart <= 0.17\ngini = 0.32\nsamples = 4\nvalue = [1, 4]", fillcolor="#6ab6ec"] ;
13 -> 19 ;
20 [label="gini = 0.0\nsamples = 3\nvalue = [0, 4]", fillcolor="#399de5"] ;
19 -> 20 ;
21 [label="gini = 0.0\nsamples = 1\nvalue = [1, 0]", fillcolor="#e58139"] ;
19 -> 21 ;
22 [label="NumCart <= 0.17\ngini = 0.26\nsamples = 949\nvalue = [232, 1248]", fillcolor="#5eafea"] ;
12 -> 22 ;
23 [label="maxPrice <= 0.02\ngini = 0.26\nsamples = 923\nvalue = [219, 1223]", fillcolor="#5cafea"] ;
22 -> 23 ;
24 [label="interactionTime <= 0.0\ngini = 0.15\nsamples = 137\nvalue = [17, 199]", fillcolor="#4aa5e7"] ;
23 -> 24 ;
25 [label="gini = 0.0\nsamples = 1\nvalue = [2, 0]", fillcolor="#e58139"] ;
24 -> 25 ;
26 [label="gini = 0.13\nsamples = 136\nvalue = [15, 199]", fillcolor="#48a4e7"] ;
24 -> 26 ;
27 [label="NumCart <= 0.06\ngini = 0.28\nsamples = 786\nvalue = [202, 1024]", fillcolor="#60b0ea"] ;
23 -> 27 ;
28 [label="gini = 0.31\nsamples = 557\nvalue = [166, 708]", fillcolor="#67b4eb"] ;
27 -> 28 ;
29 [label="gini = 0.18\nsamples = 229\nvalue = [36, 316]", fillcolor="#50a8e8"] ;
27 -> 29 ;
30 [label="maxPrice <= 0.29\ngini = 0.45\nsamples = 26\nvalue = [13, 25]", fillcolor="#a0d0f3"] ;
22 -> 30 ;
31 [label="interactionTime <= 0.01\ngini = 0.49\nsamples = 20\nvalue = [13, 18]", fillcolor="#c8e4f8"] ;
30 -> 31 ;
32 [label="gini = 0.24\nsamples = 10\nvalue = [12, 2]", fillcolor="#e9965a"] ;
31 -> 32 ;
33 [label="gini = 0.11\nsamples = 10\nvalue = [1, 16]", fillcolor="#45a3e7"] ;
31 -> 33 ;
34 [label="gini = 0.0\nsamples = 6\nvalue = [0, 7]", fillcolor="#399de5"] ;
30 -> 34 ;
}